71 24
49 0.04532 0.0898737 -0.0301106 0.0755502 -0.177734 0.157765 -0.295258 -0.204875 -0.061599 0.034591 0.163934 0.169445 -0.093714 -0.120859 0.0936337 0.322152 0.279528 -0.132313 0.0420044 -0.314621 -0.0740826 -0.0550545 0.219137 -0.254681
46 0.0656894 0.125943 -0.0493624 0.0854301 -0.218672 0.191425 -0.384164 -0.268224 -0.0854202 0.0330958 0.215872 0.196772 -0.122208 -0.112733 0.0660344 0.369699 0.328619 -0.129516 0.0244727 -0.380398 -0.073553 -0.0575548 0.27185 -0.310379
50 0.0506653 0.110593 -0.0306101 0.0531805 -0.163452 0.154084 -0.34622 -0.246867 -0.0926716 0.00251495 0.200459 0.161411 -0.119169 -0.118984 0.0960792 0.320099 0.297171 -0.108651 0.0285099 -0.333342 -0.0636753 -0.0512204 0.246109 -0.270995
33 0.10421 0.186697 -0.0662414 0.0900456 -0.280321 0.251351 -0.541584 -0.391024 -0.104815 0.0204439 0.266502 0.239037 -0.176094 -0.144946 0.131798 0.520671 0.497757 -0.166226 0.0685547 -0.566053 -0.0890416 -0.0785641 0.400909 -0.436799
19 0.0530826 0.0761209 -0.0154197 0.0296838 -0.0999881 0.105963 -0.186837 -0.157437 -0.0572265 0.0104097 0.0959699 0.112484 -0.0668744 -0.0530721 0.0338204 0.189982 0.18403 -0.0539582 0.0153533 -0.228071 -0.0499541 -0.0156585 0.162132 -0.169718
25 0.0721179 0.112049 -0.0325987 0.0647815 -0.220263 0.188613 -0.37748 -0.260479 -0.104555 0.0339081 0.19288 0.190195 -0.140496 -0.133926 0.069401 0.380102 0.358283 -0.150678 0.0434524 -0.410594 -0.0863525 -0.046225 0.270649 -0.315221
28 0.0706871 0.0780439 -0.0189217 0.0466304 -0.151974 0.138362 -0.319899 -0.193365 -0.0737036 0.0318617 0.172572 0.160584 -0.113269 -0.107654 0.0549877 0.291457 0.286566 -0.114369 0.0241955 -0.312587 -0.0452168 -0.0238235 0.23608 -0.22166
52 0.0741773 0.140955 -0.0399456 0.0791698 -0.202939 0.199897 -0.410874 -0.297053 -0.0879692 0.0218598 0.246972 0.194497 -0.131751 -0.139615 0.0768526 0.414764 0.353161 -0.130845 0.0168762 -0.428166 -0.070645 -0.0410429 0.290794 -0.327842
59 0.0700796 0.101517 -0.0153023 0.0715812 -0.165251 0.171288 -0.349626 -0.248975 -0.074804 0.0271407 0.19704 0.159387 -0.121537 -0.0990622 0.0815106 0.332233 0.323622 -0.113737 0.0366353 -0.357901 -0.0617074 -0.0183073 0.271368 -0.289525
47 0.0342818 0.0294993 -0.0309862 0.00930155 -0.0641672 0.0844994 -0.140199 -0.111821 -0.0345371 0.0163475 0.0909556 0.0666661 -0.0514233 -0.0689513 0.0435292 0.152451 0.151009 -0.0542848 0.0138628 -0.166733 -0.0292601 -0.0264729 0.122483 -0.142563
41 0.0435072 0.0878526 -0.01894 0.0348421 -0.113492 0.107819 -0.21443 -0.172857 -0.0633772 0.0168909 0.105938 0.108497 -0.0517111 -0.0635715 0.0700254 0.20095 0.174166 -0.0690625 0.0353531 -0.218512 -0.0333659 -0.0323138 0.172927 -0.169654
21 0.020676 0.0517229 0.00065537 0.0172744 -0.079181 0.0519971 -0.110505 -0.0706457 -0.0444047 -0.0145188 0.0812062 0.0647828 -0.0280133 -0.0500702 0.0331156 0.112531 0.0953917 -0.0557511 0.00761152 -0.146805 -0.0350151 -0.0299483 0.078525 -0.108633
34 0.122869 0.210634 -0.0649704 0.105355 -0.379367 0.337956 -0.652762 -0.475496 -0.149908 0.0464022 0.382332 0.320512 -0.207289 -0.188786 0.158033 0.649591 0.620443 -0.215882 0.0605256 -0.708848 -0.0969372 -0.0854932 0.505636 -0.536647
58 0.0539906 0.0950391 -0.0206018 0.04712 -0.166715 0.152184 -0.268753 -0.18389 -0.0811872 0.0199928 0.143964 0.151443 -0.100996 -0.0767194 0.0640356 0.285573 0.236749 -0.106951 0.0291097 -0.31089 -0.0691803 -0.0201282 0.219416 -0.231388
55 0.0599963 0.103147 -0.00880618 0.0825665 -0.192286 0.14623 -0.322595 -0.254285 -0.0788711 0.00512464 0.189419 0.14482 -0.106794 -0.12493 0.0548034 0.32083 0.284682 -0.122782 0.0472572 -0.356055 -0.0774489 -0.0398702 0.245887 -0.272259
53 0.0546664 0.0641053 -0.0191048 0.0589082 -0.134558 0.119118 -0.247657 -0.163467 -0.0361501 0.0250841 0.113166 0.104789 -0.0716678 -0.0587514 0.0480635 0.232979 0.200616 -0.0681644 0.0324004 -0.257134 -0.0629396 -0.0228979 0.191633 -0.198852
12 0.0446031 0.0594269 -0.0318354 0.0567541 -0.107888 0.124001 -0.205078 -0.178224 -0.0671452 -0.00798961 0.132512 0.130794 -0.0617037 -0.0838861 0.0701118 0.222545 0.188409 -0.0999295 0.0360997 -0.239255 -0.0221435 -0.0412748 0.172262 -0.168691
1 0.0932571 0.200934 -0.0522221 0.12446 -0.310637 0.293 -0.604725 -0.447504 -0.151538 0.0210509 0.313212 0.308921 -0.20597 -0.208105 0.154892 0.566809 0.550944 -0.240118 0.0646783 -0.631792 -0.0807295 -0.0829004 0.451998 -0.460416
4 0.0368893 0.108654 -0.0126404 0.0710624 -0.142543 0.138075 -0.290922 -0.209886 -0.0591565 0.00208829 0.169238 0.146468 -0.0870282 -0.104345 0.0847546 0.254994 0.254999 -0.118162 0.0428797 -0.292535 -0.0643575 -0.0278632 0.214473 -0.216835
14 0.0178422 0.0483778 -0.00708201 0.0396001 -0.122741 0.121337 -0.207777 -0.140737 -0.0580839 0.0124555 0.117387 0.114448 -0.0600092 -0.0713243 0.0459719 0.203159 0.166573 -0.0937745 0.00124937 -0.23293 -0.0510482 -0.0398938 0.132073 -0.155826
60 0.0497814 0.0620417 -0.00329363 0.0426543 -0.10519 0.133973 -0.215888 -0.180886 -0.0495519 0.00526047 0.135636 0.119756 -0.0834193 -0.0653928 0.0579547 0.224216 0.210423 -0.0942345 0.033226 -0.266594 -0.0298213 -0.0388212 0.175058 -0.169622
54 0.0609535 0.0998601 -0.0399999 0.088741 -0.181956 0.156012 -0.349712 -0.255432 -0.076989 0.034884 0.199639 0.163868 -0.104884 -0.12771 0.0846167 0.349476 0.320999 -0.1154 0.027639 -0.369796 -0.0778706 -0.0253023 0.273949 -0.287998
57 0.0597666 0.128754 -0.0261985 0.0744108 -0.223891 0.169673 -0.363891 -0.280189 -0.101647 0.0197035 0.197664 0.171938 -0.110894 -0.110867 0.0713332 0.354484 0.343069 -0.133033 0.0173717 -0.411861 -0.0646222 -0.0329939 0.294291 -0.303084
15 0.0500253 0.0795649 -0.0111319 0.0243873 -0.134234 0.117631 -0.222765 -0.138371 -0.0645725 0.0162915 0.140434 0.09572 -0.0809023 -0.051274 0.0319708 0.226881 0.195373 -0.0955673 0.00663009 -0.222083 -0.0435607 -0.0163596 0.144586 -0.192205
32 0.0592712 0.129891 -0.0445548 0.0797703 -0.220712 0.172047 -0.375536 -0.261169 -0.0949889 0.00942965 0.197012 0.202667 -0.127596 -0.0968564 0.0946168 0.367851 0.317747 -0.131559 0.0146516 -0.379444 -0.051567 -0.0383029 0.264368 -0.296049
6 0.0788526 0.0879251 -0.0140633 0.0733758 -0.195916 0.177929 -0.347418 -0.250066 -0.0896999 0.00675029 0.211362 0.177767 -0.110664 -0.108642 0.0710587 0.326288 0.323057 -0.137835 0.0395884 -0.370176 -0.0559884 -0.0283183 0.254782 -0.285739
11 0.058392 0.103808 -0.00369558 0.0499398 -0.125859 0.130492 -0.274461 -0.212162 -0.0685602 0.0279085 0.158037 0.146478 -0.103187 -0.0988827 0.0834615 0.238152 0.2362 -0.11794 0.00681562 -0.295568 -0.0302651 -0.0204002 0.211514 -0.198904
9 0.0597154 0.0936882 -0.0109054 0.0595475 -0.135454 0.10942 -0.257946 -0.184148 -0.0625283 0.00738441 0.126704 0.128911 -0.0586403 -0.0833174 0.0449495 0.240412 0.215446 -0.0960155 0.01823 -0.273033 -0.0240916 -0.0287741 0.162358 -0.202152
31 0.0262919 0.0691068 -0.0413364 0.0631528 -0.121642 0.0992526 -0.233779 -0.153359 -0.0359517 -0.0051475 0.136782 0.116292 -0.0931842 -0.088493 0.0323588 0.230967 0.225189 -0.090915 0.0354535 -0.253696 -0.0296752 -0.0324811 0.179584 -0.214408
30 0.0488435 0.0732592 -0.0181475 0.0256544 -0.104876 0.101399 -0.191175 -0.130074 -0.0267719 0.000797697 0.0981519 0.0982223 -0.0790855 -0.0681336 0.0359239 0.184971 0.166241 -0.0795447 0.000653699 -0.186771 -0.0412014 -0.0336936 0.154455 -0.158687
24 0.0448771 0.0866343 -0.023496 0.0612906 -0.159056 0.105789 -0.272657 -0.196747 -0.0412959 0.0325636 0.160557 0.121093 -0.0638286 -0.0942146 0.0443283 0.250712 0.241107 -0.103702 0.00605297 -0.272113 -0.0475522 -0.0480658 0.187562 -0.195041
67 0.0788106 0.11568 -0.0509308 0.072028 -0.199007 0.206296 -0.385182 -0.255289 -0.0938123 0.0356871 0.231357 0.170153 -0.1413 -0.134381 0.0842313 0.345613 0.347473 -0.158645 0.0502329 -0.42624 -0.079392 -0.0394234 0.263814 -0.291888
66 0.0498155 0.115596 -0.0111003 0.0869531 -0.206575 0.177983 -0.373081 -0.253912 -0.0698536 0.0125212 0.194403 0.162845 -0.128451 -0.135999 0.0854505 0.358934 0.3103 -0.129729 0.0565351 -0.404651 -0.055831 -0.0234472 0.277163 -0.305203
51 0.0669141 0.0859942 -0.0284289 0.0588167 -0.182036 0.180506 -0.349991 -0.234756 -0.0828988 0.00686715 0.187173 0.172685 -0.0977439 -0.121308 0.0947436 0.32342 0.283505 -0.113894 0.0292991 -0.360297 -0.0616893 -0.0528993 0.22162 -0.249621
37 0.047956 0.0703018 -0.0227972 0.0322219 -0.106325 0.0996442 -0.239671 -0.160988 -0.0698399 -0.00345984 0.114723 0.116553 -0.0735428 -0.0846727 0.063239 0.236489 0.225214 -0.0702845 0.034031 -0.237655 -0.0433602 -0.0158455 0.147966 -0.202283
40 0.0613484 0.163303 -0.0316549 0.10499 -0.233302 0.233569 -0.448208 -0.335334 -0.0887728 0.0481769 0.251775 0.222076 -0.144444 -0.134024 0.0848963 0.42408 0.398892 -0.17821 0.0293211 -0.465444 -0.0974048 -0.0437327 0.337408 -0.381439
16 0.0204552 0.0461031 -0.0127039 0.0281061 -0.0630804 0.0546441 -0.144229 -0.0838953 -0.0499634 0.0134079 0.0830195 0.0660228 -0.0222035 -0.0604998 0.0284346 0.135661 0.133161 -0.0563603 0.00550398 -0.151764 -0.0299167 0.000604755 0.085213 -0.0990363
42 0.0865335 0.10342 -0.013998 0.0910736 -0.211011 0.198474 -0.399199 -0.288778 -0.0689478 0.0398228 0.21664 0.190582 -0.110781 -0.111751 0.0899765 0.363292 0.333859 -0.156536 0.0206592 -0.381144 -0.0860395 -0.0563082 0.29684 -0.292369
43 0.0412746 0.0829766 -0.0256099 0.0567406 -0.110585 0.0826547 -0.203832 -0.140298 -0.0663818 -0.0084858 0.106405 0.100524 -0.0815892 -0.0501724 0.0665572 0.198001 0.170194 -0.0777695 0.0214633 -0.200807 -0.0146329 -0.0104937 0.148584 -0.145581
45 0.0438292 0.12429 -0.00889852 0.0493611 -0.17297 0.187189 -0.347481 -0.250932 -0.0789063 0.0234194 0.185059 0.159798 -0.104667 -0.104764 0.0769457 0.337189 0.333816 -0.12173 0.0367466 -0.364237 -0.0766107 -0.0392563 0.240806 -0.263755
39 0.0274118 0.0620813 -0.0290001 0.0319192 -0.154416 0.140464 -0.281762 -0.205348 -0.068317 0.019126 0.130232 0.118867 -0.0914584 -0.0933201 0.0579569 0.236228 0.251394 -0.0859429 0.00610659 -0.277447 -0.030143 -0.0350744 0.177615 -0.217162
29 0.0684694 0.104332 -0.0329054 0.0503026 -0.162987 0.139308 -0.276477 -0.182888 -0.0792046 -0.00393471 0.153885 0.121505 -0.101191 -0.0997716 0.0442532 0.246596 0.267994 -0.0902025 0.0392442 -0.301765 -0.0510314 -0.023812 0.204496 -0.204182
48 0.0497455 0.0868783 -0.0220496 0.0615959 -0.151453 0.15667 -0.290364 -0.215768 -0.0575934 0.021981 0.178726 0.168915 -0.0777543 -0.0923178 0.0537669 0.301346 0.284799 -0.120434 0.00551289 -0.342098 -0.0731114 -0.0517387 0.24274 -0.25394
35 0.0469882 0.0794476 -0.0336082 0.0340498 -0.122691 0.112838 -0.226584 -0.165986 -0.0403532 0.0264188 0.132573 0.117212 -0.0717885 -0.0510844 0.030445 0.1944 0.21013 -0.0610153 0.0357821 -0.243811 -0.0444413 -0.0360831 0.136859 -0.186833
3 0.0676023 0.136005 -0.0284665 0.0966005 -0.203996 0.198874 -0.394094 -0.293155 -0.106267 0.0199795 0.208181 0.222373 -0.133477 -0.142519 0.0888156 0.40657 0.388015 -0.145248 0.0348244 -0.427608 -0.0801658 -0.0344857 0.2975 -0.316685
13 0.0222875 0.0360969 0.00640922 0.0354039 -0.088233 0.0938037 -0.171039 -0.125986 -0.0166087 0.00969051 0.10446 0.0953557 -0.0305446 -0.0420953 0.0401874 0.14255 0.139695 -0.0770096 0.0334926 -0.180469 -0.0379673 -0.0371693 0.118962 -0.12809
56 0.0562209 0.0711853 -0.00752132 0.0504368 -0.130418 0.0923013 -0.208999 -0.157156 -0.0645413 -0.00904153 0.118982 0.113494 -0.065991 -0.0585908 0.0627179 0.194021 0.181744 -0.0741818 0.0197897 -0.213979 -0.0324891 -0.00423934 0.15247 -0.151352
8 0.0700454 0.0939281 -0.0460557 0.0676795 -0.176423 0.149345 -0.298521 -0.207016 -0.0628315 0.0160797 0.176527 0.151349 -0.0756886 -0.107466 0.0664531 0.28068 0.275933 -0.118285 0.0379233 -0.307383 -0.0328739 -0.0388562 0.220002 -0.248282
2 0.063204 0.116006 -0.0480253 0.080437 -0.214311 0.230819 -0.432318 -0.29076 -0.0936378 0.0406389 0.248884 0.207347 -0.120616 -0.124682 0.094472 0.407666 0.413038 -0.177178 0.0409528 -0.471716 -0.057474 -0.0482493 0.303934 -0.36094
61 0.0678513 0.097884 -0.0146863 0.070174 -0.196412 0.143101 -0.345462 -0.24129 -0.0853106 0.034568 0.162559 0.149953 -0.0868266 -0.110794 0.0660521 0.322075 0.296231 -0.131674 0.0214966 -0.363179 -0.0677936 -0.0508581 0.257184 -0.26292
64 0.0241853 0.0918572 -0.0193502 0.0266216 -0.140767 0.127388 -0.242251 -0.194479 -0.0648826 0.000605744 0.126347 0.114698 -0.0607078 -0.0758508 0.0404863 0.254591 0.21917 -0.100844 0.00786483 -0.277778 -0.0415011 -0.0232685 0.185542 -0.217162
63 0.0771894 0.132303 -0.0367025 0.0597896 -0.211846 0.172723 -0.366977 -0.24868 -0.10101 0.0127425 0.188595 0.195199 -0.0944606 -0.114739 0.0787862 0.331502 0.316522 -0.15183 0.0438969 -0.393109 -0.0642426 -0.0428497 0.281392 -0.300936
36 0.0396679 0.0592969 0.000527266 0.0336672 -0.147253 0.115962 -0.270967 -0.164943 -0.054302 -0.00277872 0.137936 0.125614 -0.0944866 -0.0714435 0.0606257 0.247358 0.240593 -0.105452 0.0142898 -0.284455 -0.0517762 -0.0244289 0.200759 -0.186744
10 0.0309708 0.060727 -0.0209261 0.021034 -0.0655311 0.0653401 -0.143445 -0.0830562 -0.0537442 -0.00293249 0.100603 0.0863314 -0.0259558 -0.0406371 0.0147471 0.116503 0.15214 -0.0374176 0.0150293 -0.17638 -0.0373254 -0.00175509 0.106752 -0.125383
68 0.044819 0.0636621 -0.000918592 0.0295328 -0.120963 0.0988541 -0.210484 -0.155106 -0.0636598 0.0279767 0.119522 0.0925788 -0.0850338 -0.0554001 0.0302647 0.222871 0.191969 -0.0982821 5.41574e-05 -0.230524 -0.0283022 -0.00947114 0.166355 -0.192026
62 0.0572182 0.133964 -0.0517135 0.0891061 -0.213176 0.194844 -0.397895 -0.254167 -0.0843864 0.00546015 0.200152 0.174197 -0.129089 -0.134383 0.0992414 0.343607 0.347738 -0.143034 0.0157898 -0.389803 -0.0458314 -0.0275093 0.261002 -0.311172
44 0.0455268 0.0601718 0.00368542 0.0121706 -0.0806409 0.0666391 -0.162672 -0.103533 -0.0339029 0.0288299 0.103297 0.0856945 -0.0559335 -0.0668941 0.0492712 0.177734 0.140813 -0.0459092 0.0070704 -0.192246 -0.0371992 -0.0148318 0.118315 -0.122489
5 0.0714915 0.0847219 -0.0225165 0.0605864 -0.153329 0.126915 -0.286343 -0.197086 -0.051652 0.0185061 0.140278 0.159659 -0.091569 -0.088252 0.0790498 0.257461 0.255317 -0.114481 0.0293538 -0.302604 -0.0532951 -0.0481556 0.192644 -0.233185
7 0.06599 0.117278 -0.0351845 0.0644583 -0.18677 0.183022 -0.377887 -0.29088 -0.0829691 0.032978 0.213269 0.205152 -0.103867 -0.137831 0.0803658 0.341924 0.354298 -0.131583 0.02952 -0.378846 -0.0432313 -0.047262 0.290091 -0.275944
17 0.040157 0.112122 -0.0276503 0.0789482 -0.143935 0.147011 -0.304528 -0.191932 -0.0809673 0.00226251 0.187262 0.130591 -0.084423 -0.0732155 0.0771225 0.287232 0.259767 -0.107402 0.0215527 -0.304907 -0.0292719 -0.0485924 0.238096 -0.240489
70 0.0326597 0.0972468 -0.00595148 0.0337017 -0.157161 0.15858 -0.298983 -0.180955 -0.085216 0.0194383 0.156123 0.131594 -0.0838336 -0.0706151 0.0812936 0.273591 0.249245 -0.086544 0.0162298 -0.310535 -0.043272 -0.0424005 0.218822 -0.207875
69 0.0335077 0.0833871 -0.0354397 0.0525422 -0.16009 0.167213 -0.334457 -0.218394 -0.0809386 -0.00310846 0.18815 0.152113 -0.0950361 -0.116893 0.0710856 0.313074 0.297049 -0.0970364 0.0253004 -0.333238 -0.0610027 -0.0494534 0.211714 -0.26
26 0.0608407 0.0846359 -0.0414188 0.0595562 -0.154072 0.13579 -0.334338 -0.222973 -0.0499594 0.00304919 0.168711 0.165727 -0.118066 -0.0796246 0.0795956 0.301694 0.295351 -0.117384 0.0146037 -0.340773 -0.0401111 -0.0499978 0.225071 -0.246269
65 0.0425624 0.0627785 -0.00445179 0.0371817 -0.130523 0.0919596 -0.241807 -0.148958 -0.0558226 -0.00568812 0.131374 0.0872211 -0.0818593 -0.0744126 0.0614465 0.205884 0.186905 -0.0928109 0.00812665 -0.231962 -0.0323664 -0.0334919 0.170519 -0.199572
38 0.0386912 0.0966643 -0.0117245 0.0338944 -0.157946 0.148696 -0.273232 -0.192319 -0.0748156 0.0268705 0.135681 0.122673 -0.103686 -0.101029 0.0578904 0.269278 0.234284 -0.105129 0.00112654 -0.262491 -0.0296267 -0.028671 0.174801 -0.206796
18 0.023242 0.0659283 -0.0160252 0.0473485 -0.0987007 0.114955 -0.230023 -0.143246 -0.0374768 0.0187449 0.0993983 0.0925283 -0.0790414 -0.0888159 0.065318 0.186371 0.204627 -0.08787 0.0309447 -0.22244 -0.0203842 -0.0124884 0.133458 -0.171543
20 0.0557734 0.0755268 -0.0121201 0.0566777 -0.130433 0.11524 -0.201848 -0.136617 -0.0351541 0.00640646 0.117328 0.110195 -0.0857137 -0.0809785 0.054357 0.213376 0.211719 -0.095166 0.0111348 -0.208195 -0.0386106 -0.0231857 0.145486 -0.174521
27 0.0432889 0.0515696 -0.0259233 0.0241988 -0.0901138 0.0929707 -0.178079 -0.111989 -0.0362535 0.0202206 0.0962773 0.105338 -0.0558679 -0.0587442 0.0384122 0.156026 0.184036 -0.0594386 0.0012595 -0.195626 -0.0313293 -0.0249994 0.113952 -0.149948
71 0.0390432 0.0413611 -0.0110617 0.0227522 -0.074804 0.0776114 -0.160369 -0.115193 -0.0339286 0.0274226 0.111232 0.0814928 -0.0652855 -0.0618915 0.0539322 0.136932 0.153671 -0.0755241 0.0203393 -0.173873 -0.0212103 -0.023905 0.124739 -0.12114
22 0.0600773 0.0703276 -0.00358322 0.0642002 -0.143352 0.127603 -0.241415 -0.19388 -0.0512022 0.0244433 0.133761 0.146362 -0.058556 -0.103302 0.0789131 0.249488 0.229445 -0.0965556 0.0256819 -0.267123 -0.0519745 -0.0496578 0.189458 -0.200051
23 0.0371793 0.0775863 -0.0175922 0.0272485 -0.119448 0.0804322 -0.179792 -0.119559 -0.029143 0.0101723 0.123117 0.1039 -0.0523009 -0.0451086 0.0384063 0.167617 0.161111 -0.0838931 0.0205959 -0.222756 -0.0525018 -0.0138406 0.137106 -0.174775
