6 24
1 -0.000274579 -0.0501971 -0.0183408 -0.0349546 0.0161466 0.104368 -0.0036622 -0.0789017 0.0583399 -0.0925338 0.089834 0.0571638 -0.0860762 -0.124755 0.0819118 0.108298 -0.0222104 -0.129137 -0.0398948 0.00684381 -0.135849 0.033293 -0.0257663 0.117539
3 0.0301725 -0.0340551 -0.00252342 0.00391472 0.032013 0.0408867 -0.00820235 -0.0735836 0.0116304 -0.0690453 0.0486397 0.0306492 -0.0519127 -0.0975015 0.0381563 0.064272 -0.0162489 -0.105688 -0.0388286 -0.0106398 -0.0949174 0.0356258 -0.0320206 0.070282
2 0.0126446 -0.0154939 0.00368574 -0.0123987 0.0187455 0.0863151 -0.0184758 -0.0938653 0.0574639 -0.0777498 0.0960729 0.0687368 -0.060708 -0.122706 0.0712219 0.111044 0.00847889 -0.123731 -0.0455973 -7.38341e-05 -0.134253 0.0237013 -0.0397933 0.0994528
5 0.02195 -0.0298744 0.0102295 -0.00140893 -0.00866304 0.0627133 0.00420972 -0.0565821 0.0110052 -0.0591286 0.0534861 0.0486296 -0.0575256 -0.0813912 0.0598329 0.0694235 -0.00204405 -0.0798201 -0.0275884 0.0160591 -0.0855262 -0.000908515 -0.0399818 0.0575863
4 0.0158687 -0.0155838 -0.0177754 -0.00173876 0.0283007 0.0677571 0.0184287 -0.0764324 0.0230666 -0.0822959 0.0725096 0.0538255 -0.0405696 -0.09574 0.0352708 0.0829204 0.00684222 -0.0942362 -0.0454808 0.00166535 -0.112736 0.032752 -0.049127 0.0894987
6 -0.0106559 -0.0128951 -0.0010687 -0.0203048 0.0236014 0.027581 0.00691254 -0.0384896 0.0118746 -0.0210457 0.0238835 0.0124819 -0.0224512 -0.049566 0.0359971 0.0268361 -0.00299725 -0.0499661 0.00464378 0.00811029 -0.053944 -0.00440765 -0.0272912 0.0506787
